-0.02460092691688237
-0.051277179866322825
-0.08050142585729339
0.20029538964386967
11.756403074879964
-0.031771561102366355
-0.07927906088195093
-0.03581757488106831
1.401071748770339
-0.04684697916705178
-0.02204104565560225
-0.017930372812543196
-0.015472466713764088
-0.04171500265212693
-0.016288081236328567
8.55949832854747
-0.06046033819013115
-0.05855171793956235
1.3000144123095934
0.6665962779293495
-0.02125964789458297
-0.01859420970330436
0.9435742002320758
-0.031872082387286275
-0.04228723706638703
-0.0647197252595742
11.280428872125064
-0.021266613714360103
-0.05405155495137788
-0.013256273797871483
-0.03196712958883211
-0.03882325753501296
-0.05822059457699925
-0.04778435065514242
-0.02250144233151186
-0.061809451998562595
-0.04428998124685633
-0.023096555840664317
-0.04399383228566697
-0.06611882704124201
-0.04547584569126001
-0.05498856897402495
-0.019212652558164827
10.785150358349036
-0.008859561700642964
17.33122798538451
0.7371255980747451
-0.02064129518029041
8.974713410536689
1.0653038457029664
0.1418173820466272
-0.07833623425413555
1.3890467182780653
-0.1035756064168773
-0.027758685968399564
-0.02632967706240239
5.255981857755579
0.6973518185575039
-0.07000239730348506
11.59737988736584
10.44003178314664
-0.0399469085662541
6.340866281896575
-0.008540489156260545
0.45591386478996787
-0.06946449529724086
-0.013690472194647618
-0.050024194405995086
0.1864652595616874
11.112872385475521
-0.01874114546349659
-0.015297502844115105
0.3273493289505681
-0.024431688906628897
1.832258455453313
-0.10281000245631387
-0.033779351298187
-0.02783006975890437
-0.015253605519969116
0.28496707879890465
-0.01956460609150451
-0.01563726225417782
-0.0511516619447142
7.550707060627046
-0.03218091089465147
0.09376822282902575
-0.10228050277292507
0.015859146405479533
-0.02242132579558346
5.202876873045234
0.7486792696991244
-0.04230308283801553
0.42649922724056083
-0.05282822455943324
0.07211169706267044
0.05106910395556386
-0.053469105977174254
10.907452354388173
1.3332959087995246
-0.0748435189368218
1.44995754764052
-0.02009331440778545
-0.06743965558987215
-0.057469303064354445
2.511782356792723
-0.06688785063491834
10.370823126056846
1.0189033743002178
0.5299932777743119
-0.09719631048595137
-0.041914293516043054
0.019180610169796275
-0.01599715388476283
-0.045820001726620214
8.003069273552047
-0.06940353756211733
-0.039446699627803644
0.2989690778395854
-0.05860072540576612
-0.05197330436002046
-0.021539656827973097
-0.031101742402970093
-0.03979177793664436
-0.0311181424871756
-0.03455445613270358
-0.03966958967032639
-0.08473541485827672
0.8407880239351563
-0.0953713063008206
-0.009670429247501944
10.09428646386707
6.966384313988607
-0.019321123948237047
9.780131497289442
-0.08492277097816174
-0.012126448137280957
0.4484456954663089
-0.0462034166192312
1.324781128005213
8.960399240994827
-0.04620602236154035
0.5622431842344826
1.076233488932718
0.2592033652077048
-0.026320734400153794
2.362294068079944
22.99396254979281
34.43086831143194
0.4696251133101961
6.889522755593906
-0.03420564787882948
0.8490983743957712
-0.03215509148850192
0.15579549203263
0.10997615006427845
17.958987412577738
-0.04245471182820779
0.5847800350907311
-0.025264918338354692
-0.0160372467060231
-0.06565094071541366
-0.08855912834184594
-0.045229021577600746
-0.04393101770594067
0.2041049126357291
-0.02762763759717128
-0.016206576122367602
-0.02026437216442113
-0.0005252838233913634
-0.08898277622867033
-0.05363931614919965
-0.03008706888815567
0.13149208580384
-0.06837889518055998
-0.030636761689466014
-0.10012017850944199
-0.022535482956580064
-0.03623656273232517
0.04581534865290197
0.6051106390723102
0.7134319384090746
-0.007438695578479259
0.5844801005518558
-0.02354228830310785
-0.05746574850144316
23.525192359367644
-0.03331587303165199
-0.021464423132204664
8.977233748436598
-0.021662932386977356
-0.021006343764553424
10.398075287804902
-0.0462040763458348
-0.09009215009170723
10.280416424910161
0.10632182062263638
0.8140445334862636
-0.09014032239976948
2.092967519364284
-0.04165949866876366
-0.05076850230717011
-0.027675686457118348
5.533860956330387
-0.056456471202912584
-0.06310017971341804
0.9320006591074335
0.20729769643838525
1.1843050244920306
-0.050025341820539346
5.374409143043838
-0.049659918315810896
6.1536119203885
12.845573053306252
0.6879205261461765
15.882675410339347
-0.03466273101805484
1.9182459747915575
-0.005101539179467532
0.25715598797561956
-0.007118951581544167
-0.046949404373685784
-0.022281993510117958
-0.0608310610084873
-0.04965499805576379
-0.039122513169988576
-0.011942374462897667
-0.09827462847595012
-0.040335273765166726
-0.03447318083481547
3.5953203188293115
-0.015193061994247067
-0.02156772080851617
0.048780019036528115
16.24360038403797
5.6341684670352254
-0.014970387905867978
3.393805803752509
9.778123355966398
-0.03564911910762481
0.9195745804072404
2.758521832922451
-0.06436849704124187
-0.025819956586168008
18.966705048735744
1.3528923785194849
-0.08255598945192853
-0.045128296729830826
-0.03481697960313762
9.407267930625178
-0.01973186396662253
0.8718512319104917
6.488200310824308
-0.04112242593673386
-0.060323719102613076
-0.033372026726169145
-0.029108322112391248
-0.026212593396227522
-0.0360669714598437
-0.025878149512883114
3.142088423421069
1.2699040872521483
0.024999787205678015
0.2625709889608603
0.011411565995103337
-0.07737036117167864
11.12685810089801
0.3840311936000879
-0.006835356613426153
16.158166145229387
10.59983293368282
18.457788618983276
11.137376643402408
0.1330067599175897
1.859722936162387
-0.011013343636452117
0.228141387138449
0.7360919917584313
-0.0718011366125369
-0.04146572958783033
-0.0515398774806542
1.017145597439292
-0.016927422849459892
9.149363313246571
-0.014665389708662935
-0.029793957654835137
0.559093311983126
-0.03867344638598842
-0.047692279964149875
-0.0593136392755945
-0.03517912961109144
-0.009718758732861446
-0.07705378418442073
-0.005189104608745732
0.21067159082338313
-0.015605214821378381
0.03008540673280345
-0.08945172424044892
-0.03282616691957188
-0.07876099013229057
11.075586972038506
-0.030408087550439628
6.06101425288257
-0.014284572405678795
-0.040791800500791016
-0.02424528394740661
-0.022033510972626583
0.3531702142123135
9.190940441951563
3.2759012112721613
-0.021823039370498367
0.08430939774990502
-0.03465678908556927
13.53864885177172
9.019090514352596
1.4280696508231925
-0.038428947364237444
-0.021811015936772284
-0.06743100514118965
-0.060625058613900856
28.73754732807908
-0.048727721225572104
0.03665285707716611
0.5057873931625836
13.169165320935582
-0.0010419251357842176
-0.06563494447920043
0.1934945623735806
0.16477878857318298
0.4546612624053282
-0.0060970974168784095
-0.00607963179635016
-0.054083026634566864
0.8256230735182682
-0.04458756547219765
-0.047076584281762646
0.5228091172358083
0.024379448112701367
7.851395565474392
-0.02300654485819565
0.7766452651781255
23.32729984656671
-0.01405999160123717
-0.1312738017936718
-0.02367306746418985
-0.0639798464751296
-0.06553231470971813
-0.05748705003374609
-0.011273682265219449
-0.04163718870150112
7.791579833437593
-0.020399062412626793
9.019352315744088
-0.01408055003479388
-0.05736192105976163
13.61005173192497
-0.014413182882659376
2.32069031060925
9.369922195181205
-0.10414125078103349
-0.018473658832039812
-0.07866490205546489
-0.04934026779893506
0.009819921026774894
0.18518434433683945
15.238359635326093
-0.0604224690246539
0.4288025607162717
-0.016274859439009366
-0.018213571423727724
0.6080806566835154
-0.0757911111659797
-0.06458829584035673
-0.06683992690407461
-0.03823053059219127
-0.016422940085136676
0.16130039591050624
-0.05982938605462162
-0.007015411835648293
8.608439216342953
6.066067540863363
-0.028209956373207227
-0.023975128243137845
0.11248622604486697
8.490407238658008
-0.08114089444263238
0.06132236951781579
-0.014202623816867653
-0.04117901706828324
7.025492118773041
28.737494762372002
9.358461774418751
-0.026348748271619475
3.294705202129361
-0.03260365634582293
-0.03883873330350313
-0.026550976052637804
-0.021398452665377057
-0.060970839600840945
8.152088727295096
-0.043780682638495015
0.05953033494790027
13.099860964717577
-0.02905557164411329
-0.02218935731893952
8.202671166139131
-0.012556599692140232
2.2073240053420284
0.5589260905425292
-0.050771955859764455
0.041042802862297556
-0.022726648375371552
-0.01730763233813034
0.04648429893614016
17.39248351924792
4.415336139238631
-0.05083874658423678
3.057583319548104
-0.01985403671677268
-0.08442786784587937
-0.05352320323195958
-0.045585651488828274
0.7641197612821063
-0.08990963459753111
0.002885998774282132
4.602173826044657
15.77324827427226
-0.033810784815765216
-0.031233883725521695
1.1488268787864573
-0.03367841361559353
3.2926395377859228
0.28296565313954003
4.7230631131466385
-0.09078552076925026
1.3484348494305478
-0.025809135931649865
0.18850155061294485
0.2911201576853965
0.13177356209321245
-0.027456735752570897
2.1676223653189646
-0.04571712813710859
13.514378649400314
-0.024828692563204205
-0.0267993618918412
-0.08164534853543354
-0.0581376394325318
-0.022335400038333696
-0.02741413565084867
-0.03361754882806331
-0.04123178056795642
18.573460667292927
-0.03178683674313575
1.5296409837968208
-0.06238223690542676
0.5301997969389535
0.6868964916490149
-0.05439944350899846
1.6206075799517692
-0.050261292820484485
-0.06932193493566648
-0.07390715360801746
-0.046500182897010085
-0.05128620303535503
-0.023786291152530184
-0.017198414985097166
-0.020699242412903617
-0.03753764848166379
-0.06725523317135047
-0.07405919787729884
22.35436888402694
0.47586067095316326
-0.06080395678689294
-0.02594697495687959
12.676655335727023
18.536248158489187
0.6182042018280516
0.070789879008835
-0.07808383093921818
-0.06079184152666525
1.1963947337699283
-0.0766649703313417
5.2798393886699015
-0.009854505283007676
0.816665373052925
-0.027116028245363567
0.08528995481892031
-0.08024986326509338
-0.01622757646616411
-0.06593667465499028
7.277437125695336
5.638344375485122
0.19859922784621925
0.9795930007971497
-0.040057651470118825
0.22112630749492326
-0.07387810262302383
1.0727485862357946
-0.030602154293624086
26.49700007192988
-0.06679796403020172
-0.0447940476351721
9.175413625661319
3.319883330084827
7.034534667084862
-0.04775097963892096
0.3756616623250639
8.884132052942366
-0.02598832832479113
13.552349631000048
-0.03917533748929539
-0.040853428106536305
-0.07228179103453218
1.1473452173693028
-0.04677858093831411
-0.040304212325084195
-0.07278364377750551
-0.01133429973714136
0.17402684350575878
-0.014717243097093756
-0.04506968739161929
16.28130836028677
-0.028484184415651478
-0.029361623089562222
-0.0816344307952052
2.7024021048478826
-0.039133177575552784
-0.011511814198147407
18.251809239230912
-0.038238393120595966
0.8173423168776769
15.252341971407802
0.8038201095668734
-0.01706323104334673
-0.012074910512428066
0.6912788595183379
-0.05831498262321091
2.979547604353268
-0.0033766703189378046
-0.06637440795253133
0.18090541496609575
-0.08820206729297432
0.02143117989164005
-0.035393415023653986
-0.02705628821248378
-0.021057564913314435
-0.044474110363365564
0.035202016976041944
-0.02715152132727704
10.020667999242132
-0.015569445035229001
-0.04050918732822542
0.061097484876800986
-0.027121400162774607
0.0977665453696683
0.2009052822677781
-0.03710675239719712
-0.017963319578566825
-0.019352990302225138
-0.02765011026477652
-0.07452196524409732
-0.03454888418598682
-0.06033189808661005
-0.023024499226995683
0.7621152191821479
0.6733224242363239
-0.03639735136883006
1.0971404179762398
-0.04572868726194999
9.270638156615545
-0.036496024832216846
-0.05633478333337708
-0.006731551937294033
0.8219771174560893
-0.05554295466137243
0.5515912388196305
0.6472180877478282
0.954413935234096
-0.03319407102917473
-0.04236039943258805
-0.01904197051644646
-0.07471181975104847
-0.02782244187157595
-0.008787186275377144
-0.059494246235279276
-0.02915260583312127
0.1979401261412233
3.0249763584450577
-0.02301728682649877
-0.10694268278527488
-0.04347445346114348
-0.03751738088410241
-0.016121828439709444
-0.06912862755427446
8.936454057313203
-0.033340613564997776
-0.003021519009223025
0.2471632249799085
4.794319297434521
-0.024079105527453074
0.5791555914611459
11.027305603964225
-0.01162411355458453
-0.009411687967040259
-0.09269360192647667
-0.035567223765316666
1.4147450467630338
-0.04168487381785468
2.7925654342183908
2.5023157680876187
18.924722442655405
1.1999138854732456
-0.04616004896102833
0.6438857377536497
0.14439064172389263
-0.05913058720346081
-0.04484859367922809
3.9423724109414637
4.577714855914626
-0.022387599391949585
-0.02824101440178058
1.5069991929104816
-0.09705122387720283
-0.04073953566141181
12.784450566330815
0.3883982343725862
3.7944512843521587
-0.008370197446014898
-0.06286751507894417
-0.06541451787186632
13.445944561276995
-0.05219623820243945
-0.04765179552875566
-0.055759423613600166
0.030638699493062155
-0.03552004966115771
-0.08288097927997515
-0.03226325506052888
6.354178964620637
-0.05999127675439626
-0.10123579016282373
-0.047211650848471724
-0.012706378999548407
-0.03382589953629841
-0.0393281933425408
-0.030591002847765236
-0.05522292619190802
-0.06174010073555428
-0.016061067294885184
8.965982596623114
-0.023942243199787112
-0.033361875571787214
1.0969562533506652
-0.01999399281662709
-0.04960857319761647
0.5562969898269573
-0.07988736095735122
6.040167170201767
-0.008519781983470292
3.150005184493295
-0.016016081365819713
-0.048871383704956556
-0.0133613331285859
-0.07781229995384854
-0.05690041755163006
-0.05170096173713307
-0.029267529711910018
9.363842707016813
0.091768970709035
-0.025128335545434262
-0.041016015354816165
0.1288028363812775
-0.03688278434863678
-0.016744072059729824
-0.019321379034541872
-0.042217890255979273
0.16107680536046673
-0.02056110547944297
6.024117464335574
17.13650310552752
19.18783921877156
0.2550508137613724
-0.01750470765636572
-0.0314262131734578
-0.023886527930475264
-0.014358224704637133
1.4154747382812916
-0.028489911499604274
-0.04824183750419593
-0.013249596274890522
-0.018642881162396957
11.475644069851969
-0.051286469899020595
19.083032493475084
-0.0515328052445362
0.9908985627519247
8.680730050040497
-0.07630311667656041
-0.0367148270221176
-0.056146232737548714
-0.05351298857587336
-0.029831530187002207
-0.05233554515591115
-0.03172290178899181
-0.04745016453764516
3.4093066098603337
4.79676761512345
-0.12153592241225972
-0.030967582094007257
-0.10230481596080807
11.069126841104259
17.946653083332844
3.725671443629744
-0.05021748513144472
-0.05305351144131655
-0.030892499864449644
-0.02321118382944918
9.643973831207644
5.8697039657629215
-0.05736993916585212
-0.059900701452234015
0.9670194662022925
-0.07340292563108711
-0.017822613830648388
-0.06947662012731291
3.5623209695404605
-0.02767179239918015
-0.0255904083352043
-0.011976367959279078
0.9788518290860108
-0.06724498422292861
0.31581036924204553
6.714903859959969
5.843887565448387
-0.04090355403502357
-0.08140924411406622
-0.01847775565703761
-0.023514819682792218
-0.058816498799748484
-0.057855368493508426
-0.031172582560225006
1.6438360896460933
-0.019988643112808714
-0.037374374838066014
-0.0388164169904517
0.9172724794746009
-0.03086976428790528
1.2387314037813806
-0.052678259024063936
5.219272462848789
-0.02731638995948007
-0.08564628608294853
-0.01324936055864323
15.043623169738133
3.776204143678112
-0.05531260508677587
0.15270985262574605
-0.0570141784686082
4.353451000726542
3.309463134968504
3.5842451657356196
0.4669832539209913
-0.09964174232972835
0.5202242896114195
0.15130807286412562
1.4205754608398546
21.907353367718954
-0.008362590337616637
-0.07737749190143592
-0.05801420225220596
-0.041246824847579855
0.08329644824252089
-0.041754186785887694
-0.09970775998567438
-0.021264852080459695
-0.028252891843471527
-0.04034669676439122
-0.034735089660803214
-0.025638139620302
-0.05157989976075403
-0.06352079887461667
1.8614841886163247
0.15914205429084116
11.747636692985447
0.29721992071399295
3.736007188205449
-0.07461180775039387
-0.005212430467369307
-0.043477637810404264
-0.08903052407437001
-0.03195765801428413
-0.05913858622508379
0.10096198010484439
0.013248679637933967
-0.024016101792731896
6.029714185311634
-0.05132220810499518
-0.01692064602891217
-0.03385529152281621
-0.00901836653678582
-0.023977294676858104
3.521735393854685
1.5474972616717901
-0.021233918885840784
-0.05377553724031212
-0.03895266515672822
-0.06606456154121101
-0.05143106570496098
-0.060676818345426896
0.23314533954396366
-0.026498134893502317
-0.007624993031195958
-0.08124425661112636
-0.06346208015926003
7.834914709384451
-0.015105132829471181
-0.0067464814781117155
7.550013564929895
-0.03521737886424104
-0.07050472245461727
-0.013207917895778864
-0.02342938840157371
-0.07317616456983157
1.0155647588917778
-0.02933686643137371
-0.021225677335588125
-0.029671592744795954
-0.07066106401742155
16.38206892559994
-0.04885680452717494
-0.038354326065341136
-0.035589788535015904
4.899758064299173
0.47857005264395897
-0.03357597473261162
9.630257872943
-0.04513866340857903
0.27187270444207406
0.01855558323001448
-0.04707265507196268
0.503434112065922
7.5552064993979435
12.710214677391148
6.3577980137458425
-0.05860792228965779
0.14182146777235394
0.0963653704406426
14.003248029557723
-0.07068252819530785
0.02785751939672843
10.629394007907523
-0.05341233274420787
-0.02795104604752862
-0.043850378930113613
5.530708973660127
-0.04116094292651298
14.601015121377184
-0.015405530487655616
5.076970198307233
-0.032727787459801205
2.3088063782772372
-0.02158839462880392
2.7036592820867007
5.165980119948466
-0.0427619547673373
-0.03621062140582629
6.237172985040991
0.24504519733524402
-0.020158251220919025
-0.05081639980025247
0.05705803265583277
-0.0692294302456659
-0.023963013929626815
-0.027282301174862324
-0.019174261904102784
-0.0570182203352968
-0.07533555587879225
-0.025389133355393872
0.318498133832554
2.4547832602726194
-0.021228078408627553
-0.04785030332531823
-0.03354906054041944
6.20555110620137
-0.026824689374008906
-0.013341327735635792
3.1416046505006894
-0.05611020687426314
-0.04915415830028739
0.7778991327620739
0.07060422556943372
3.0360063975461413
9.507172826748738
0.1041619925623429
-0.022296998263159448
-0.03397407758064029
0.9227638896351433
-0.02357994431272906
-0.09704754641107932
2.18631648376455
-0.06263758987463086
-0.026979354524863473
-0.02346087144728312
-0.0583163608190435
0.01020290552811811
0.9121444595884819
-0.024860469478590927
-0.03909356145415373
0.22221211910132055
-0.029437201465310404
0.3880678605703345
-0.043661341374801356
-0.07941685270634274
-0.03930856825786561
12.02176637248808
20.514988203071827
-0.02588597492414589
-0.05680162809362683
0.6495626572115852
-0.03805413772090249
-0.09530638715904104
10.470421396792805
-0.08496073651577656
0.008895364014420903
-0.013844019169552732
-0.07337075496276751
-0.03683347924123391
0.24399369180354955
6.671126223672972
-0.04406577884709119
-0.0508624096091003
12.303595591861363
0.4559663409207052
1.169261590395326
-0.03380892887806459
-0.011750349284553058
-0.024297400408316332
-0.015174737436495616
-0.0669618184379777
-0.04280168133051259
-0.07973244444124375
0.08899559041137889
6.303212599856962
-0.0889014963856953
-0.025318672384121062
2.2217770915931614
8.987189118611868
0.1340204790981859
-0.12139217096842926
29.205786743253316
-0.03110300483024936
-0.01664932062326304
-0.04054879851869728
-0.024591004332739107
-0.03576242534920197
18.239932260832664
0.6714483906525883
18.643217634211926
-0.042295994826208376
10.34037460161316
-0.0150213589570963
-0.027554697076989564
-0.023852787150042954
-0.032086744162192975
0.8809897602990091
-0.014021351134848549
-0.05560657200592474
-0.03320536032551921
-0.01898210056694911
7.818570234515607
2.6305545664306718
-0.0064373442265686365
5.561139694669519
7.282775212602333
-0.04241117047999414
17.768000272123796
11.62770777876751
-0.026819765820553225
1.3129092675455065
0.32706942030407565
-0.040415405791885545
-0.06283527721456744
9.286970154667484
-0.07926515331336384
-0.0833385833922306
-0.04253752310438444
-0.06396711447725825
-0.0807725594984572
-0.028072248236473214
14.524413632879476
0.3393974664085638
-0.040964502185305195
0.9010350374785985
-0.07016062993650694
19.357004923497435
0.10856011617308217
-0.043138631330930405
-0.07518540821077174
3.6064799138265253
-0.04151029054636558
-0.01928243389230809
-0.044516113673028726
4.511286543893564
-0.014114608734703384
-0.039683076542870156
2.632224369837043
1.5898123861780395
-0.02547832872479742
0.17679410733707696
0.0022392771688194537
7.080351025040325
-0.020909971466456873
-0.037633086956049486
-0.06538570076126711
-0.0188445053318211
0.28601193836426236
-0.03634139519175716
6.121257993292703
-0.04080035222681116
1.375005858333408
0.045525384335183446
-0.04447487801182592
-0.046196165272808204
-0.09207772610959458
-0.022707802798550777
-0.05547975802523219
0.2777795263453964
10.525808131076795
-0.08515715910843157
5.099206309933822
-0.03517927516484487
-0.005861908677395809
-0.029650843257829195
5.439586993994874
0.24546649851275804
5.6657013910504235
-0.00456988676481113
-0.039801563842923486
1.0946424298998925
-0.0949316062251465
-0.06133379289466659
-0.08660533285005359
-0.02793295579172453
-0.014015728946189656
-0.024020091292720876
-0.05536813545717755
1.6817047904210427
-0.014677395906426673
-0.03483311378051689
5.059878909455785
-0.004551442038970846
0.13508427681621446
-0.035334259964117654
6.071305975093012
1.1063925390912315
-0.02483358843175549
7.301145406061633
0.8094545676751452
0.09565966603234627
0.5449655071403592
-0.04238118840225887
15.035036727711498
-0.0795251115754311
12.369892502138379
-0.01032760196140526
0.33138425300293695
0.48270706883071507
15.14366401594257
-0.04597893489113264
-0.005905649510379094
-0.019313336345015922
6.7060765980267805
-0.019278198687219736
0.4734893743925431
1.1282633917084002
-0.05973635355287059
-0.04640268501259555
-0.059989974134214856
11.309191246736193
-0.00981331379521747
0.12583521941381332
9.983961091369757
-0.04976553655870698
-0.02930799209087683
30.50730694551344
-0.006409900154891348
-0.011970246453052235
0.82103249408622
0.2469354047963122
-0.03922281860680509
-0.009145176264122342
-0.04936530534536364
0.03767313443831768
-0.05670638765507422
-0.023621541729856456
-0.030623257542406263
-0.07270357956317437
-0.04506405939901561
3.7211735561661126
2.8212078920440864
-0.05136554926788349
-0.07989329912387551
-0.03355064574895289
-0.008821979908670992
-0.05668621285073889
-0.02099322593648628
9.254056580883335
-0.07228015052975714
9.503981659604756
-0.03763023389832345
0.197358402446336
0.5071983387366893
-0.0567330439801449
19.236490682129013
-0.032572670191375615
-0.06506671505811626
-0.014024367683641726
11.789894982065679
6.462906869948005
-0.03348170865352818
4.46262731912827
-0.03844293134896713
10.836635974130113
1.3121252364079985
-0.05363200202183373
7.073352058698983
-0.04559694338462564
1.8818578732450615
5.752700398748738
-0.02844916107852473
0.01855501593742748
-0.02390405445342975
0.2997297137138778
-0.07481386536059519
-0.00041449744157321484
-0.040184773572836126
-0.06312423547288913
-0.050622043804597026
1.2527414308101548
0.07594328472877047
-0.03579416275269704
0.8855675283547332
-0.029643183318375285
-0.024031621725849044
-0.008666570090784522
-0.0697847801044207
-0.059862185571753615
2.506432287926776
-0.045881908862166
-0.04051019133641412
-0.014888268300287172
-0.03025685465341677
10.829768198538808
0.018054314713455102
-0.08082200225299956
-0.04423165320714035
-0.0428656670813124
-0.04332411847761631
-0.0002616249463960451
0.4285366150997594
-0.02411236690389512
7.745154104737776
7.107914207041558
-0.032518788384190415
0.6846636136287833
8.105382539540203
1.9023444893231847
-0.015801643891165156
4.924512891372064
-0.06486454325291457
-0.04987706668699091
8.760786658990972
0.00886749135374795
-0.05582748653304243
-0.04754902026873238
-0.06858829189891191
2.194842382368864
-0.028396591930631147
-0.03436056423167219
-0.03502334794625761
0.35702255368031194
0.03565498477997005
0.004742419040561455
1.359855329907043
5.4492166388771786
-0.04019933376408911
-0.008122261670387002
6.070125228707502
-0.019682043279456076
-0.03356346648805732
0.8841506318774143
-0.027131215231400812
1.648622107043764
12.14634008582173
0.5982078387175905
2.0798456502692235
2.697437584481973
-0.024152909966630207
-0.030055150578838542
-0.017250152342892087
-0.11597768624729175
0.7874364685871049
0.22282613071091523
-0.06684046858067265
2.406482753365382
-0.043968312367874476
3.415280450610567
-0.018198970469815695
10.485251283441022
6.5047763922509985
-0.04671711731923553
0.07464744090300869
3.420119575680696
-0.0246571278500497
-0.037829302131927374
-0.04758931819320862
-0.06907584943932378
-0.044987758525522455
-0.042851765200751436
-0.03194473279875487
0.5539272606898191
-0.0515753420596952
0.3601599407008624
0.015293889354854227
-0.05763442786576193
-0.036472043324332036
-0.08002276190185513
-0.08163602972778575
0.07720298007159676
-0.02574157322768749
-0.10082745456391025
3.3680202487601862
-0.028229241773382586
-0.03325738255310953
0.15040113248847747
-0.08459973867234323
8.829019379926534
-0.08092701135819705
-0.04542168453164372
-0.08376954232124556
-0.07316921573959473
0.11025792984394739
-0.06793860927445486
-0.01380466853178873
-0.05322294919959096
0.08127886399168391
0.7660311867231374
17.780826168057246
-0.06174406966039931
-0.06556371442722823
-0.05781150268577075
0.4893405338545063
-0.051228777943332526
-0.0739485033603686
13.070372952189123
-0.066951461108813
-0.049569026576635866
-0.06930015543895335
-0.04315473937296246
6.649505258256319
2.8864128424648174
0.28949920972838195
0.22030005902514074
6.3534762254799455
-0.03840066460806913
-0.07712772560759092
4.8587077516128865
-0.02045014142239825
-0.043346462149103364
20.240492753563743
-0.06226685562638435
-0.04355298154477881
-0.03601358453336575
-0.04758476423371698
-0.045055338355672075
0.35218768287979546
-0.04333592781434285
9.208487566035055
0.5091201887675268
6.52214058932354
-0.0045847541930715795
3.1616754654120682
-0.014817726823742685
1.8315028385766856
0.01456276334283993
0.04087115251413243
-0.07091611909070436
-0.048603978420395884
-0.027572183657221798
-0.05687838702906979
-0.07494734435478952
-0.03152969520226281
0.4969395877526593
0.1349666213360072
-0.009339412754263714
-0.04402609990461737
17.22914969498058
-0.06810327982622941
2.051221965387758
0.17349063054610803
-0.04604346877760025
-0.06693729151501053
15.891777403601635
-0.053181876834209024
0.6248499666239568
-0.014415346918754372
-0.07598465395391987
-0.010742165939136938
5.209282143643258
4.177872803939048
0.47799966051377446
-0.07436821038772849
-0.019004144357011456
-0.054013976671071315
3.0987115077563727
4.849421671020324
9.068712495794959
-0.02788662775068263
0.01823650666058561
0.4900951102052904
-0.07929259770279971
-0.06206814094550706
0.855913130368426
0.0972711486559073
0.13104643536707303
0.08199698630194106
8.771479996940236
4.174453535906976
-0.04614293815113076
0.35826754222294477
-0.00545169219545163
-0.04856912645639248
0.0996977596660706
2.1766873049217086
6.151028501420707
-0.033649667079944295
0.08750071245654606
-0.05161670110631442
-0.006137461335698424
-0.07878953136628455
-0.11730932500969607
-0.04171932114819251
3.728971408121585
-0.048074821986073456
-0.04657780770494212
11.076041091242143
6.988691556070807
2.68985106660707
-0.01412537770245966
-0.09362642443529083
-0.06849171631139112
-0.03675146648703117
-0.012875561263720522
0.017788982519828966
-0.019897996080211523
17.485150411628737
0.05362986476935737
5.221321122486057
-0.03306488792396156
-0.04074194258279229
0.23569883472260902
-0.0380603097578407
-0.07408174918021887
6.608511037552175
9.067330480345175
-0.060545100086586506
-0.0427983885560074
-0.042763709711611
-0.04255825854192451
-0.09375686321406707
-0.0457899446928471
-0.04964658681512101
-0.08690106420249769
1.547734125371691
0.19961574027083046
0.3509380337400586
12.037820579379565
4.389280040586934
0.4889507182564636
1.2906727604036243
2.100297650075092e-05
13.149984992970762
-0.02715765794232222
8.827462495563761
-0.08252342219378786
2.731279237514638
-0.07299944364484466
-0.050783369722487696
0.8623385370969635
-0.030141091733231627
-0.053823318092144135
-0.03153581818100453
-0.01619911749466953
-0.025580714051835964
4.993909912161691
-0.039232535141754406
13.413674979571038
-0.06014983392719108
-0.01290483543574605
8.934989992774025
-0.04190087534155108
0.3422480586081236
-0.023220029390676446
-0.024549106745188905
-0.0292461124498572
16.53999489169265
-0.059639672597938856
8.172666148666808
-0.04004585349490228
-0.04750254818008652
8.337075866049046
-0.008216065871561474
-0.013420415399098724
-0.10974183335427923
-0.10487939089518362
5.618770408867449
-0.056404407391953244
0.6286710253142402
-0.03636816739285882
-0.022483080288088812
0.4686948451955699
0.26535919146973946
-0.0391769212069549
-0.08779684301639126
-0.03677456249911868
-0.022010262875512592
3.7768748641099066
1.1768830422175751
-0.0691993415836651
-0.06987150968269325
-0.042663788381647305
0.2104384256813386
-0.04028673939440102
-0.03263144643763708
0.024724622397176415
5.743577616034791
-0.03136894939070046
-0.04567640583065333
17.661380034556043
-0.03476379771442117
-0.018334499378747524
0.15348569566905343
-0.04600351916727173
-0.024247782452536518
-0.0332918664968015
8.543862222288649
-0.015863895282066248
-0.045583374222577244
-0.025212867786406183
4.033879388390435
-0.027464612031848457
-0.05702656701004669
-0.0584539046766721
0.5302825745225392
-0.042755986488389665
3.361189631671958
10.023297834218797
-0.08668389587717662
-0.02918190010982738
-0.00876639376201814
0.07215068508865903
-0.03312764133910474
-0.06040338596539631
3.185084776398153
-0.062476419959696855
-0.04664774694696384
-0.05001889702743048
-0.030010392146098082
-0.015128104372370086
-0.07016244991421548
12.920664941627967
1.6992589605625106
2.7680716866834456
-0.03793025408089727
-0.0607077326607557
-0.02113765532768818
6.414835580386522
-0.028701243164310365
0.00779222168974295
0.7093343088126933
-0.020531688253646464
5.505291949666665
-0.03314427212837798
-0.03250535855319166
9.282785049010894
1.2451864580950343
-0.032819500955968924
12.134019268242277
-0.04851147488996067
3.388036425933698
-0.013275367714411634
-0.009220044101600829
-0.04621901609186766
0.1629428031613782
17.74687232888471
-0.02300770755131299
-0.05609951509046811
-0.06456906832047113
0.6247768915098466
-0.03355472773855161
-0.04404424335306738
-0.03198543457269223
-0.0448937673159502
-0.006421894365333844
6.7601983327597575
5.0008690552409645
0.9440236642357384
-0.07609828198184186
0.6785516783880575
3.1038428438342796
0.4856394912391217
-0.00705761944089554
0.7135569008997111
-0.0939805347014568
12.774603141008175
9.794806060590583
-0.051994673521816116
0.025671456285994557
-0.04976627401903688
9.550700521375237
-0.0685447326501179
-0.07187085381723649
-0.07985001173362082
-0.050610959694705464
0.5400604812978643
9.11835705087499
1.2529990365624624
-0.044496762106957875
-0.005401489626506649
-0.020354630923262135
-0.024532278871415732
-0.04285173652873718
0.37481721985556216
-0.00688549707797384
-0.0337127831862868
-0.01730576089713383
-0.061149984780200874
-0.06831530667316496
1.8393985702190194
-0.06049484770247115
-0.017834496644794667
11.83633538123365
7.6430493303108635
-0.04633555224355728
9.957855540588193
17.888948961280878
-0.01707964590991795
0.8425463856177589
-0.07225874605361314
15.126586511009988
-0.10166299761652606
-0.028656418486080446
-0.06928261186617582
-0.005514408348838451
8.2835554596341
19.96338617451482
2.1763834350028857
-0.030512305267950755
-0.03422745741396582
-0.07762132412688173
-0.04425307301242931
0.001759502918150831
-0.029705203500378495
-0.03210359814314049
-0.04623463971625249
8.913881669455918
-0.05567786021509415
-0.06576526516468058
-0.083602197313702
-0.04910909147769376
0.3358636865539071
-0.02381702447947594
-0.02483289740458238
-0.042094416065925226
-0.04484071055647399
-0.05360522187026878
0.034373570150872
1.2870553479463187
0.47015216677081806
-0.06339337117903958
0.034199683233119504
-0.032444753897708914
14.821583035276452
-0.024227872919963592
0.9831560667420735
0.31225319586891087
10.50798504438049
-0.026248362802629068
0.39937003871243315
2.7651150724290265
-0.028419016818140554
-0.08121009172954574
3.9927014024838035
-0.07301222732019094
-0.03190416411341037
-0.04858191911489065
0.0389980687771489
-0.09155200276915805
-0.06848226884376343
-0.06842544664769687
-0.025047204064878602
-0.01731523673202803
-0.0542614582053844
-0.05405395969231256
-0.010091197113645912
-0.002077754821544357
-0.10739628809641139
-0.033650682643971454
-0.005513598886727333
-0.03188332187326351
0.6082725761669593
0.048362650182331886
-0.026760673673803942
-0.01485242655640056
0.7684704124583814
-0.02808175413750936
9.889776267973687
-0.03692982385607972
-0.015120050217188593
-0.07237694682625781
-0.04304680973341838
-0.02881585376053871
0.20467810779724505
12.301455187738627
2.3772110218633946
6.6896188703256785
-0.022827898661211793
3.5331491206333605
-0.050853054269047814
-0.04752261897383626
4.153790043731804
0.11438186231819451
15.164871693219487
0.7791699897406775
0.11350187580765347
-0.04525367227785612
-0.03919963601532887
-0.010470885255714994
-0.020807767315265766
0.22834338993338182
-0.026623861891139095
13.299688944997014
-0.0663231021293337
-0.06847740857565743
12.13882727454795
-0.06359001777632142
-0.0069854228569547535
-0.0683389266922833
1.2814931663045637
0.030997965385036182
-0.04468867421309874
-0.0735461770581707
10.90378646173236
13.883157016288243
-0.045648939525317435
4.460643773811425
-0.053474111517812326
11.384327810313149
-0.06874916902114046
0.5127762363378433
-0.03327567760051026
-0.04514904212724022
0.40861879226238407
-0.06038368451957551
8.119489503741281
0.4286316418466608
-0.028353610802925745
-0.045760553425338524
11.291863725250417
-0.0020267304734943817
-0.003885545512676328
1.9717624487156633
0.156632455277472
-0.02383838530413636
0.06848856177411232
-0.023517065402932625
3.5350619515394293
11.225805731204376
3.6573599511001245
-0.049556798691084106
8.45492845295971
-0.022294017443144562
-0.06573031528801765
12.329450289540787
0.24109838101947942
2.5184903848880213
-0.016737573047710418
0.9132191550233032
1.3160587286367893
-0.0323871498800431
-0.018924544202920418
0.8207894129926688
0.06581115213340549
-0.007867879682350845
0.22070761682357465
12.927977189167454
4.277542549388524
9.649374106241703
0.44368826513052934
-0.04740607766553508
2.3879642586624046
-0.02384150093870417
-0.07352880630983416
-0.05273125630611385
3.716357144315558
-0.033127822949827315
0.43895495933804807
-0.04611974030536747
-0.03471137926896452
7.256596353436955
7.875896797269816
-0.05069497187710296
-0.06478162961637109
-0.10105383464697106
0.1389420954768068
-0.007989180869296815
12.092309312079427
0.2780505331087314
21.95166391157794
11.378180896944988
-0.04342736290324089
-0.07644391729946405
0.32030953976974924
-0.04810982463570521
-0.0439334903848268
-0.0179863015875186
0.44373060761170735
0.6842853337804702
-0.023698528906285973
0.21593666932766492
1.2395519908246928
2.4372186503884836
1.139718444743321
6.144724016016013
4.56012770682107
31.9956844526813
-0.05492421820395308
-0.04896419436247985
-0.015614605500364675
-0.07321566733699296
1.3577000897943792
-0.037072731995852565
-0.043324319726048964
1.1580227267586083
0.1848740564273423
0.680389417618634
0.05801567300640621
24.397179786281665
5.311481022878638
-0.0650741705193715
-0.03315208278422657
-0.04919431229071531
1.0019465685329316
-0.001084679615385272
-0.009740531527735002
1.1983828279899027
3.4732328358505793
5.710715581894946
0.4606884443120526
-0.02883249429923201
0.8404012245678053
11.366365799599564
-0.07146076967552084
-0.037404275529917236
7.683765112976727
10.85652636243144
7.117689184867911
-0.030954410629928226
-0.03784155385792674
4.990340634926654
-0.0572707590614747
-0.024481271680586093
-0.07637114271303885
0.1473503128048096
7.5667962173683625
-0.06791254635637693
-0.05303302983018652
-0.044416659322271033
-0.1259455696107291
0.103861236355142
-0.0912795865680969
-0.07917135283022533
2.931518935375615
-0.03756943694486402
-0.04320510718099693
0.46279954934071776
0.33727539607193524
-0.08603127780746955
-0.050189077365731374
-0.06932350751704902
22.805254827934128
-0.011279178841549675
-0.016243182885846842
0.1902024299930364
-0.02166393523001874
-0.0050627073044092275
-0.034990560664408435
-0.010273425070115057
-0.030618201757310295
-0.03329864716089187
-0.04487715629654669
6.503070289439089
0.23615609731115406
0.9993895685042918
5.475188300655705
-0.01754580427959601
0.46164202987130526
11.358949432030972
14.007051878078327
-0.05050725380614386
7.708312329747373
-0.033286077355012156
-0.0714782542925467
1.0263351628674056
1.4578154608186558
-0.05321427671208619
-0.0838118858226101
-0.02324459150686657
-0.035763405187251365
-0.047154928109628964
-0.056769134437784405
-0.055608523934592625
-0.04525791987966713
-0.031886516200752495
-0.049627627418617246
4.973509707694045
-0.07547884647306331
0.05123442251145767
0.796435679271687
-0.027621947296760565
0.3050677975317348
0.24156158851532777
7.020871558209171
7.306525527279173
8.401095532381905
0.015730272872972337
-0.0841088739956928
-0.07921682783535262
-0.0007725289363241807
0.49035330522755133
-0.034457160259496585
-0.03517588129201428
-0.041563200217629104
13.196150949734921
-0.013279312123528533
-0.016015767755523234
-0.03246203139970887
0.052804311713523566
15.493593591044132
-0.0738353861807426
-0.06604123795305436
-0.021184136361900807
-0.05927064624221238
0.18345247441961052
-0.022254468992719517
-0.0454919244167924
16.10026742308239
-0.009562180871588062
-0.11268280485573438
-0.0883021884581445
15.656063788811752
0.18029408495758315
-0.03417339812898058
8.108174409462533
0.06922842867600393
0.06314565504209307
7.700888344868054
1.6141322607083182
4.830982687374782
-0.03109207572728131
-0.066649168168466
0.565446231375971
0.40730478915762014
-0.03426762166062167
5.479805547560268
10.835263255894475
-0.02577906516156061
5.361561711713308
4.466634862220723
0.11262169360494019
-0.06214651587520335
1.602573620809759
8.783739022569813
-0.0728238036091603
-0.03039783532881999
-0.022702218128071286
0.5001517040496252
13.839352058281598
1.0775221630938523
8.796059635373222
0.04293350681014889
-0.08682684788465589
-0.04311739156832533
-0.04360916006353612
12.57411186367059
-0.0302512620999968
-0.05968022534526986
-0.05298802993195687
3.651425179873285
-0.031065106149029922
-0.03486974238284252
15.141543753055085
5.739628601586256
0.7369252559039168
0.029899139678774684
0.05051252591756477
-0.02884235195283843
0.09245630028421528
0.09261492414805308
-0.03047186503592834
-0.01751353711373947
10.742560318465461
1.4628125834791943
20.587659427491936
0.5084721259037666
-0.049735463315003114
-0.018469414908443317
-0.03215658539732611
-0.04514447831577763
0.5700392110086143
2.6563446653601788
2.3161183319610568
-0.04881974121918817
-0.0387322013553003
-0.05267716226448585
13.915833207780068
-0.035923850585343524
0.1827287925125235
0.6824420679361154
-0.07041631977358033
-0.039687551437315734
1.5480358279964148
0.3354292679501137
-0.015410145203908491
-0.014021007382649636
-0.03394681597277962
0.6466939362264935
-0.07003075139092398
5.776884957755966
-0.03963035790135566
-0.011476501702450886
-0.05571316524813992
-0.031935914013633555
0.7387939771646113
17.085285544468654
-0.025662587216575498
4.163748185588475
-0.04100064813494774
0.8634499450481217
8.578427285693744
-0.021241319939311054
-0.011595156693785242
-0.054131711171265924
5.864354720619346
-0.03754710039650264
0.6703787327100935
-0.04542211893665098
-0.04742588270188421
-0.08031774112021114
-0.0780654756354328
4.858684023757682
-0.011136124539550806
-0.01480254266625676
-0.019000517142606182
-0.05320858121156019
0.5391980157158646
-0.031930640844459145
-0.03548682621819335
0.3547434950094949
1.5888274933984428
4.870433955146945
1.0602414326452305
0.5063463442779041
-0.04655615701520502
0.21584288053544975
9.875063169442873
-0.03327231322093693
-0.06993107542940201
-0.055323947468352015
-0.020960628496472927
-0.015254656859969636
3.826164444422475
-0.061641800057212585
-0.06141456742265295
-0.04679772589021908
0.10825319648576978
0.1350481153565044
-0.05645210952697063
-0.01932805953771808
-0.07406628288734844
-0.04121330925556811
0.21996721800658492
0.12681013225989612
-0.012563759863944127
9.726698057215986
0.9927425185629432
-0.021390899594662456
-0.032138635796747694
-0.03947683139864991
-0.02237643542057129
0.6844416981544046
-0.06351363704182189
15.353277281452039
-0.0762092910101558
-0.08078913020126566
-0.019403281476710728
0.6235540865682567
0.8137298814839293
-0.10660370806198205
-0.04947581528955072
-0.05918231724568113
0.045303031619006534
0.6724662638263983
9.513028744368668
-0.031622794063079274
-0.02734204779472631
0.6054850390143842
-0.023548940050519693
-0.04573565792685393
-0.016827557911700198
-0.12662492611628856
-0.013196704441491574
-0.04886792443377288
0.3809693783648275
-0.05805074134874724
0.3194708650723104
-0.016284548978814158
-0.04771004848080456
0.2582712817473677
0.08140031732237359
-0.05405774739185995
-0.04424402871116822
-0.05427356885374009
0.650332471739824
-0.060897308496114695
2.136382732371438
-0.012290943912801036
-0.028029372261818154
5.314147982078788
19.23618230143595
-0.04102377948631776
-0.0748758447465866
7.248015781159633
-0.1078225272043638
0.03921837985608642
9.253871985845102
0.6089157296838238
-0.01967851427648009
